{"w1":[[87,134,1131,468],[-139,-141,-474,-201],[1,-122,63,-50],[163,186,-8,179],[68,-52,-218,-3],[-14,22,-88,32],[128,-50,-34,-16],[44,-79,151,-94],[98,0,236,28],[84,14,-210,2],[67,90,420,152],[-9,-115,-46,-115],[53,-67,-104,-66],[35,113,1149,342],[48,219,-610,101],[72,-193,631,-28],[-135,-47,795,52],[26,-17,564,-30],[94,-67,-416,-55],[-407,-303,-893,-298],[-498,-453,-393,-276],[157,133,-111,-35],[-353,-315,-79,-217],[92,60,-580,-132]],"b1":[-289,366,-315,-355,-207,-57,257,-139,-291,-238,-105,-169,-139,67,-44,-35,3,213,-281,-317,-770,-296,-74,-31],"w2":[[-142,-77,-11,-35,-36,-68,17,-41,-73,-48,31,-30,-44,36,-20,-174,-213,-95,21,-50,-55,-123,55,-65],[-24,-14,-121,73,-22,-16,284,-14,1,1203,319,-268,23,249,-145,-61,59,483,341,-867,-1588,340,-1406,122],[53,-455,-132,-332,-105,-5,-1156,-16,44,-904,768,-375,27,-135,216,602,-550,-7,-120,88,254,-343,379,-1014],[-116,-64,-416,-593,-133,21,-126,21,-471,760,-1738,217,6,536,-186,-110,-421,546,-134,178,277,-337,-470,517],[-20,-37,12,-20,-34,24,-38,-10,-69,26,7,0,-36,-48,-79,12,20,14,26,-8,-20,-47,-40,-53],[283,58,-29,406,-140,3,-222,20,-60,-2211,1594,247,5,-670,387,119,78,208,96,302,194,256,514,-1530],[-2,107,-511,71,-229,-21,-489,-46,-407,1164,-1739,270,-42,7,-178,14,-302,396,-378,111,234,242,-438,284],[23,-23,-6,-29,-47,-51,1,-29,-34,-18,-18,-25,2,-30,-27,-19,-59,12,-25,5,-26,-6,37,13],[-65,-2,27,14,23,46,-8,11,-52,-11,24,18,-33,-57,-45,-57,-56,-20,22,-14,-45,-42,10,-39],[153,63,263,313,167,-20,-43,-47,-357,787,-423,-978,-19,149,91,-128,330,-59,389,-306,-173,-97,435,-56],[-61,-174,-140,-57,-120,28,-326,-37,445,-1668,212,-33,-16,492,75,296,191,609,252,235,145,208,481,45],[-125,74,300,-126,156,17,-31,-8,-460,1050,-1289,-194,-42,-1173,331,31,-84,-435,91,227,298,-274,7,276],[139,571,239,139,205,21,434,-25,-500,699,-57,-1089,7,37,-6,-209,59,121,158,204,-412,-162,276,129],[-595,399,-160,-708,-157,0,-63,8,499,-1297,-471,356,50,319,-829,400,208,217,-96,222,-87,-28,-610,-770],[57,-37,-308,-4,-169,20,-487,-35,382,-912,-729,-265,52,759,-374,144,6,312,-134,-71,190,360,654,-1179],[-33,-373,-336,-57,-184,-27,-296,-8,357,-1279,-189,-377,14,263,-500,231,247,233,-97,-255,-3,-21,384,-630],[185,-640,50,212,141,-16,-53,-43,-55,1346,-831,-849,23,-530,-54,-187,142,56,172,169,-373,-69,-839,-440],[-120,-77,387,35,220,49,568,12,-691,1524,-714,97,-31,-736,-713,-490,3,-1132,243,791,350,-301,-112,919],[-54,-135,-72,-660,-126,22,-592,54,168,-1764,462,-786,-23,172,-635,172,-110,123,111,-132,-98,106,42,-729],[-250,-309,-496,-361,-2,-30,-445,43,-30,994,-1467,-116,13,-164,-102,370,-356,469,-24,2,252,130,-712,364],[44,-888,-51,-352,-142,-5,-1458,-6,604,-815,1192,-46,-19,256,-92,579,-185,103,78,447,274,515,759,-712],[-27,54,70,-269,-83,13,27,-26,332,491,665,54,-62,220,-725,19,141,-65,368,-252,-176,45,337,157],[122,178,-30,-49,-91,17,59,44,418,-1474,695,-268,-34,297,-198,35,307,568,-36,-284,-428,148,317,-547],[-627,193,-133,-270,-142,20,220,-13,-161,-1222,405,155,5,-505,-125,-632,-631,251,14,139,399,-1117,612,-834]],"b2":[34,-59,-370,-106,-2,-218,-402,-76,-9,79,-110,-53,280,64,-36,-112,135,-427,-53,-224,-212,-160,121,-83],"w_out":[[68,342,555,-280,6,-196,-201,-28,-32,-496,240,-200,-291,341,747,793,342,-945,-762,-209,423,707,279,-556]],"b_out":[-201]}