#ifndef NN_WEIGHTS_IRIS_H
#define NN_WEIGHTS_IRIS_H

#define INPUT_SIZE 4
#define HIDDEN_SIZE 8
#define OUTPUT_SIZE 3

const float w1[HIDDEN_SIZE][INPUT_SIZE] = {
    {0.629223644733429f, -0.7089104056358337f, 0.23745964467525482f, 0.014736765064299107f},
    {0.7740240097045898f, -0.8447555899620056f, -1.1264407634735107f, -0.7774474620819092f},
    {0.5630783438682556f, -1.0947847366333008f, 1.612735629081726f, 1.3181408643722534f},
    {-0.0884840115904808f, 0.159931018948555f, -0.9635376334190369f, -0.6204094290733337f},
    {0.0524541437625885f, -0.9446715712547302f, 0.7077527046203613f, 1.2402515411376953f},
    {-0.8524582982063293f, 0.6551390290260315f, -0.7696815133094788f, -0.0949738398194313f},
    {-0.7904160022735596f, 0.1922517716884613f, -0.6940609216690063f, -0.5941624641418457f},
    {0.10816694051027298f, -0.07169157266616821f, -0.22236959636211395f, 0.050032369792461395f}
};

const float b1[HIDDEN_SIZE] = {1.7639118432998657f, 1.0251816511154175f, -1.1032068729400635f, 0.12327445298433304f, -0.23865322768688202f, -0.013147042132914066f, -0.2653161883354187f, -0.33827441930770874f};

const float w2[OUTPUT_SIZE][HIDDEN_SIZE] = {
    {-0.5567820072174072f, 0.6943984627723694f, -0.4385417699813843f, 0.9069192409515381f, -1.0839288234710693f, 0.7014718055725098f, 0.054721102118492126f, -0.18419508635997772f},
    {1.1402344703674316f, 1.0391170978546143f, -1.4628793001174927f, -1.15677011013031f, -0.828109085559845f, -0.8564872145652771f, -0.5876107215881348f, 0.02791762351989746f},
    {-0.6641640663146973f, -1.5944362878799438f, 1.353022575378418f, -0.6291592121124268f, 1.2406259775161743f, -0.6715539693832397f, -0.48195111751556396f, -0.01900520734488964f}
};

const float b2[OUTPUT_SIZE] = {-0.5631582736968994f, 0.7301192283630371f, -0.2481304556131363f};

#endif // NN_WEIGHTS_IRIS_H
