{"net.0.weight":[[0.34042465686798096,0.5250528454780579,4.416768550872803,1.8294103145599365],[-0.5428017377853394,-0.5510440468788147,-1.8514949083328247,-0.78706294298172],[0.003813465591520071,-0.47470343112945557,0.24576276540756226,-0.19682826101779938],[0.6353417634963989,0.7275218367576599,-0.030290041118860245,0.6991793513298035],[0.26629701256752014,-0.2018192857503891,-0.8527219295501709,-0.01042643841356039],[-0.05518774315714836,0.0869617909193039,-0.3426007032394409,0.12432128190994263],[0.5000607967376709,-0.1959962099790573,-0.131576269865036,-0.06300697475671768],[0.17343370616436005,-0.3075890839099884,0.5883562564849854,-0.3677191436290741],[0.3819253742694855,0.00018701728549785912,0.9237488508224487,0.11041442304849625],[0.3270341157913208,0.05278441682457924,-0.8192477822303772,0.009694677777588367],[0.26103392243385315,0.3527454435825348,1.6400865316390991,0.5917989611625671],[-0.0347340926527977,-0.44778868556022644,-0.18000435829162598,-0.44750937819480896],[0.2086719423532486,-0.26326531171798706,-0.40535634756088257,-0.2585219740867615],[0.13765375316143036,0.4399365186691284,4.489099025726318,1.3375043869018555],[0.18591664731502533,0.8570430278778076,-2.3821516036987305,0.3948954641819],[0.2816217243671417,-0.7523435354232788,2.4649240970611572,-0.10890089720487595],[-0.5291454792022705,-0.1852954924106598,3.104247808456421,0.20383083820343018],[0.09967906773090363,-0.06776895374059677,2.2022504806518555,-0.11604434996843338],[0.36628761887550354,-0.26150065660476685,-1.624921441078186,-0.21667295694351196],[-1.590268611907959,-1.1824820041656494,-3.4873251914978027,-1.1654889583587646],[-1.9452738761901855,-1.7696573734283447,-1.5351251363754272,-1.079944133758545],[0.6121294498443604,0.5186553001403809,-0.43487685918807983,-0.13610650599002838],[-1.3800382614135742,-1.2292935848236084,-0.31023576855659485,-0.849384069442749],[0.3611202836036682,0.23276658356189728,-2.2658514976501465,-0.5160002708435059]],"net.0.bias":[-1.128978967666626,1.431294322013855,-1.2296159267425537,-1.3885518312454224,-0.8072024583816528,-0.22079654037952423,1.005109429359436,-0.5432484745979309,-1.1380817890167236,-0.9299048185348511,-0.4111948311328888,-0.6582682728767395,-0.5419178009033203,0.26059451699256897,-0.17182539403438568,-0.13573132455348969,0.012018452398478985,0.830150842666626,-1.0979695320129395,-1.239046335220337,-3.0062005519866943,-1.1562843322753906,-0.28798192739486694,-0.12279246002435684],"net.2.weight":[[-0.554046630859375,-0.3007284700870514,-0.043372418731451035,-0.13832059502601624,-0.1401098370552063,-0.26614123582839966,0.0659359022974968,-0.16111129522323608,-0.28524160385131836,-0.18691471219062805,0.12165986746549606,-0.11809664219617844,-0.17285171151161194,0.14057229459285736,-0.07902263104915619,-0.6793496608734131,-0.8300788998603821,-0.37163636088371277,0.082547627389431,-0.19396232068538666,-0.21425455808639526,-0.48237940669059753,0.21309736371040344,-0.2528476119041443],[-0.0942024514079094,-0.053185202181339264,-0.47394368052482605,0.28506767749786377,-0.08567345887422562,-0.061566468328237534,1.1077144145965576,-0.05402272194623947,0.004125341307371855,4.699454307556152,1.247025489807129,-1.0451627969741821,0.09159566462039948,0.9735533595085144,-0.566756546497345,-0.23708604276180267,0.23215772211551666,1.8864473104476929,1.332289695739746,-3.388421058654785,-6.20380163192749,1.3275904655456543,-5.49318790435791,0.4747352600097656],[0.20628875494003296,-1.7776894569396973,-0.5167416930198669,-1.2984766960144043,-0.4102064073085785,-0.018500899896025658,-4.515820503234863,-0.06352043151855469,0.17311783134937286,-3.5304155349731445,2.999424934387207,-1.4636218547821045,0.10454919934272766,-0.5256974101066589,0.8434421420097351,2.3509023189544678,-2.150026321411133,-0.028741035610437393,-0.46967101097106934,0.34264808893203735,0.9932093024253845,-1.338942289352417,1.4819583892822266,-3.959609270095825],[-0.4546171724796295,-0.249337300658226,-1.6246881484985352,-2.3169620037078857,-0.5191057324409485,0.08345887064933777,-0.4917144775390625,0.08331359177827835,-1.8383973836898804,2.9707000255584717,-6.7894816398620605,0.8495492935180664,0.022642789408564568,2.092233896255493,-0.727679967880249,-0.4293234050273895,-1.6444963216781616,2.1334781646728516,-0.5233476758003235,0.6947197914123535,1.0824812650680542,-1.3161823749542236,-1.8354148864746094,2.0205328464508057],[-0.07990038394927979,-0.1432679444551468,0.047001294791698456,-0.0763506144285202,-0.1321205198764801,0.09318410605192184,-0.15005677938461304,-0.04092010483145714,-0.26824304461479187,0.10046518594026566,0.027878429740667343,0.0007046263781376183,-0.14233051240444183,-0.1891726404428482,-0.30934998393058777,0.04636143520474434,0.07987463474273682,0.05298386141657829,0.10159676522016525,-0.031709928065538406,-0.07789509743452072,-0.18395675718784332,-0.15472297370433807,-0.20807597041130066],[1.1066287755966187,0.22839130461215973,-0.1142592653632164,1.5878039598464966,-0.5460322499275208,0.011261453852057457,-0.8670370578765869,0.07727394253015518,-0.2349110096693039,-8.635276794433594,6.226948261260986,0.9664105176925659,0.018702760338783264,-2.6161153316497803,1.5107018947601318,0.4647979736328125,0.30304673314094543,0.8131568431854248,0.37625372409820557,1.1813637018203735,0.7570048570632935,1.0003756284713745,2.0069527626037598,-5.9757161140441895],[-0.008610003627836704,0.41842201352119446,-1.995214581489563,0.2766655385494232,-0.8940137028694153,-0.0801251158118248,-1.9091033935546875,-0.17784945666790009,-1.5900810956954956,4.545297145843506,-6.794560432434082,1.053898811340332,-0.16491782665252686,0.02779500000178814,-0.6941787004470825,0.05402679741382599,-1.1811585426330566,1.545733094215393,-1.477155089378357,0.4331928491592407,0.9150078892707825,0.9458264708518982,-1.7090717554092407,1.108336329460144],[0.08949165791273117,-0.0883878841996193,-0.023246079683303833,-0.11473042517900467,-0.18433693051338196,-0.1986422836780548,0.0032013787422329187,-0.11207358539104462,-0.13343177735805511,-0.0698309987783432,-0.07166612893342972,-0.09926430881023407,0.0065587530843913555,-0.11883372813463211,-0.10383976995944977,-0.07416419684886932,-0.22926370799541473,0.04862033203244209,-0.0964500680565834,0.02115199714899063,-0.10348084568977356,-0.024628276005387306,0.14309073984622955,0.049537643790245056],[-0.2535729706287384,-0.006100025027990341,0.105423703789711,0.05370166525244713,0.08900988847017288,0.18123985826969147,-0.03128114715218544,0.0423668771982193,-0.20364350080490112,-0.04206531494855881,0.09543392807245255,0.07121223211288452,-0.12916752696037292,-0.22429496049880981,-0.17621351778507233,-0.2237766832113266,-0.22014865279197693,-0.07658340781927109,0.08451215922832489,-0.05442437529563904,-0.17476211488246918,-0.16375327110290527,0.03717215731739998,-0.15183597803115845],[0.5969947576522827,0.2464374452829361,1.0280650854110718,1.2242801189422607,0.6505220532417297,-0.07898980379104614,-0.1693609207868576,-0.18196409940719604,-1.3955638408660889,3.0735199451446533,-1.6513094902038574,-3.820734977722168,-0.07477667927742004,0.5838057398796082,0.35673585534095764,-0.4991462826728821,1.2874350547790527,-0.23157186806201935,1.5189322233200073,-1.1971148252487183,-0.6752682328224182,-0.37906989455223083,1.6992956399917603,-0.21773304045200348],[-0.2393621802330017,-0.6814396977424622,-0.5479243993759155,-0.22276848554611206,-0.47056829929351807,0.1094922199845314,-1.2730807065963745,-0.14561839401721954,1.7385025024414062,-6.516895771026611,0.827799379825592,-0.12735983729362488,-0.060698721557855606,1.923825740814209,0.2935326099395752,1.1566314697265625,0.7446097135543823,2.3800742626190186,0.9830434918403625,0.9175775647163391,0.566951334476471,0.8141791224479675,1.8793410062789917,0.17508666217327118],[-0.4898245334625244,0.2903253436088562,1.1733282804489136,-0.49104100465774536,0.6103737354278564,0.06699039041996002,-0.1204126700758934,-0.03059387393295765,-1.7976651191711426,4.1024394035339355,-5.0368523597717285,-0.7588204741477966,-0.1646619737148285,-4.582949638366699,1.2930314540863037,0.12128758430480957,-0.3296929597854614,-1.6995797157287598,0.35578015446662903,0.8879185318946838,1.1652913093566895,-1.069342017173767,0.026230668649077415,1.0790040493011475],[0.5440502762794495,2.2293004989624023,0.9337831735610962,0.5447682738304138,0.8015182018280029,0.08123259991407394,1.6947413682937622,-0.09881909936666489,-1.9550727605819702,2.7305948734283447,-0.22159788012504578,-4.2527289390563965,0.02748064324259758,0.1429879516363144,-0.02297055907547474,-0.8153042197227478,0.23002269864082336,0.4736379384994507,0.6170878410339355,0.7960237264633179,-1.6094356775283813,-0.6316630840301514,1.0783644914627075,0.5020627975463867],[-2.3250365257263184,1.559546709060669,-0.6258173584938049,-2.764488697052002,-0.6135029196739197,-0.0007728568743914366,-0.24656131863594055,0.03292552009224892,1.948207139968872,-5.06692361831665,-1.841759204864502,1.3916102647781372,0.19424012303352356,1.2443829774856567,-3.23801589012146,1.5636354684829712,0.8129114508628845,0.8458553552627563,-0.3757879137992859,0.8687710165977478,-0.34058165550231934,-0.10851592570543289,-2.3833296298980713,-3.007849931716919],[0.2243538498878479,-0.14309950172901154,-1.2047131061553955,-0.015710756182670593,-0.6590385437011719,0.07999463379383087,-1.901855230331421,-0.13855057954788208,1.491503357887268,-3.5611648559570312,-2.848600387573242,-1.0364388227462769,0.20274567604064941,2.9661405086517334,-1.4606225490570068,0.5605722069740295,0.021501021459698677,1.2177764177322388,-0.523708701133728,-0.27612757682800293,0.7402897477149963,1.4069384336471558,2.556098461151123,-4.607394695281982],[-0.12808509171009064,-1.4566570520401,-1.3126646280288696,-0.22275598347187042,-0.717186450958252,-0.10470413416624069,-1.1549177169799805,-0.02974482625722885,1.396103858947754,-4.9952263832092285,-0.7388727068901062,-1.4741928577423096,0.056616269052028656,1.0269694328308105,-1.951613187789917,0.9034063220024109,0.9629142880439758,0.9097877740859985,-0.37807902693748474,-0.9965989589691162,-0.010439004749059677,-0.08118817210197449,1.4992198944091797,-2.4604830741882324],[0.7229676842689514,-2.4997377395629883,0.196452796459198,0.8287625908851624,0.5522863864898682,-0.06056135892868042,-0.20631705224514008,-0.16703592240810394,-0.21564677357673645,5.257587909698486,-3.2443273067474365,-3.317140817642212,0.09098869562149048,-2.071333408355713,-0.21009323000907898,-0.7293522953987122,0.5548306703567505,0.21851566433906555,0.6734341979026794,0.6590863466262817,-1.4579249620437622,-0.26772671937942505,-3.2790591716766357,-1.7187870740890503],[-0.46728283166885376,-0.3002239465713501,1.5099811553955078,0.13710615038871765,0.8577778339385986,0.1931631863117218,2.216918706893921,0.04614408314228058,-2.7002832889556885,5.951878547668457,-2.789698600769043,0.37923890352249146,-0.12169520556926727,-2.8748254776000977,-2.7832436561584473,-1.9151724576950073,0.012313317507505417,-4.4237823486328125,0.9505628943443298,3.0910425186157227,1.3677160739898682,-1.1766161918640137,-0.43620479106903076,3.589728593826294],[-0.21163885295391083,-0.5258695483207703,-0.2818891108036041,-2.578873634338379,-0.49037590622901917,0.08595823496580124,-2.3123114109039307,0.2122814655303955,0.6561484932899475,-6.889631271362305,1.8033969402313232,-3.071115732192993,-0.09045130759477615,0.6730083227157593,-2.4809072017669678,0.6719192266464233,-0.42847418785095215,0.47939348220825195,0.43259334564208984,-0.5146465301513672,-0.3833670914173126,0.4137098491191864,0.1630047708749771,-2.845832109451294],[-0.9748287200927734,-1.2078388929367065,-1.939051628112793,-1.4089409112930298,-0.009644124656915665,-0.11795752495527267,-1.7367589473724365,0.16815665364265442,-0.11593083292245865,3.88226318359375,-5.732158184051514,-0.45222029089927673,0.05218065530061722,-0.642063319683075,-0.3966060280799866,1.4446171522140503,-1.389296054840088,1.8326221704483032,-0.09200523793697357,0.009257709607481956,0.9851332306861877,0.5060291886329651,-2.782733917236328,1.4206081628799438],[0.1721998006105423,-3.467245101928711,-0.19888973236083984,-1.3734341859817505,-0.5554654002189636,-0.018604829907417297,-5.696177959442139,-0.02296963334083557,2.357670783996582,-3.1818687915802,4.654940605163574,-0.1783887892961502,-0.07545410841703415,1.00003981590271,-0.3607518672943115,2.2597858905792236,-0.7212783694267273,0.40344443917274475,0.3031841516494751,1.7463287115097046,1.069875955581665,2.0108251571655273,2.9632718563079834,-2.783062219619751],[-0.10605603456497192,0.21104811131954193,0.2719375789165497,-1.0494033098220825,-0.32294777035713196,0.05175221338868141,0.10391290485858917,-0.09969569742679596,1.2986880540847778,1.91614830493927,2.598280191421509,0.21225547790527344,-0.2439124882221222,0.8576247096061707,-2.8336236476898193,0.07447092980146408,0.5526391863822937,-0.2533707916736603,1.4377177953720093,-0.9825197458267212,-0.6873793005943298,0.17684125900268555,1.317647933959961,0.6113924384117126],[0.4762633740901947,0.6951707601547241,-0.11641933023929596,-0.18990716338157654,-0.3536527454853058,0.06529122591018677,0.2323615401983261,0.16992439329624176,1.6324697732925415,-5.7584381103515625,2.7163515090942383,-1.045578122138977,-0.13256745040416718,1.1597700119018555,-0.7720068693161011,0.13791708648204803,1.1978470087051392,2.2201640605926514,-0.13954727351665497,-1.110396146774292,-1.6730613708496094,0.579502522945404,1.2384052276611328,-2.1377673149108887],[-2.4481163024902344,0.7525429725646973,-0.5209082365036011,-1.0551646947860718,-0.5564625263214111,0.07693083584308624,0.8585835099220276,-0.05172017216682434,-0.6294859647750854,-4.772709369659424,1.5827019214630127,0.6067502498626709,0.018287114799022675,-1.9713068008422852,-0.4886191189289093,-2.4690470695495605,-2.464698553085327,0.9817715883255005,0.054548054933547974,0.542118489742279,1.558099389076233,-4.364725112915039,2.390934705734253,-3.256772041320801]],"net.2.bias":[0.1310514360666275,-0.23066560924053192,-1.4436140060424805,-0.4157302975654602,-0.009713013656437397,-0.8500373363494873,-1.571671962738037,-0.2954145073890686,-0.03565377742052078,0.30824804306030273,-0.430367112159729,-0.2067851573228836,1.0919175148010254,0.2482536882162094,-0.13898462057113647,-0.4379245936870575,0.5288442969322205,-1.6681183576583862,-0.20726989209651947,-0.8753916025161743,-0.8296147584915161,-0.6243255734443665,0.47210437059402466,-0.32345259189605713],"net.4.weight":[[0.2674846053123474,1.334570050239563,2.1663031578063965,-1.0928833484649658,0.021558940410614014,-0.7654803991317749,-0.7867523431777954,-0.10900815576314926,-0.12392624467611313,-1.9378941059112549,0.9377840161323547,-0.7816712260246277,-1.1370714902877808,1.3327292203903198,2.9175777435302734,3.098475217819214,1.3355553150177002,-3.6929869651794434,-2.977891445159912,-0.8147231340408325,1.6504541635513306,2.762099027633667,1.0891296863555908,-2.1701552867889404]],"net.4.bias":[-0.7851597666740417]}